7 100
sent_0 -0.000795 0.002417 -0.004933 -0.001801 -0.003525 -0.003966 -0.003109 -0.001628 -0.001306 0.000400 -0.000894 0.001851 -0.002745 0.003943 -0.004826 0.001636 -0.000836 0.000575 -0.003601 -0.003111 0.003150 0.004400 -0.001802 0.002021 0.003799 0.003712 -0.004239 -0.004713 -0.003406 0.003910 -0.004039 -0.000678 0.004639 0.000303 0.002126 -0.001985 0.002053 0.003276 -0.004968 0.002552 0.004972 0.002292 -0.002338 0.002880 -0.003871 -0.000538 0.004260 -0.001866 -0.002039 -0.003741 -0.004981 0.001934 -0.002952 -0.002356 -0.000049 -0.004476 0.000647 -0.003797 0.000869 0.001810 -0.003875 -0.000625 0.001793 -0.000608 -0.004523 0.000201 0.001565 0.000043 0.004339 0.000754 0.003938 -0.003535 -0.003585 0.003045 -0.000882 -0.003306 0.004312 -0.001523 0.002538 0.002485 0.003922 0.001460 0.002658 -0.001480 -0.002198 0.004317 -0.000670 0.004644 0.001564 0.001454 -0.003726 0.004651 -0.000407 0.000794 -0.000706 -0.002764 0.004133 0.000987 -0.004806 0.001218
sent_1 -0.001612 0.000395 0.003992 -0.001453 0.004061 0.001382 -0.004954 0.004275 0.001488 0.004955 -0.003122 -0.003524 0.004410 0.001878 -0.004533 0.002307 0.002449 0.004129 0.002161 -0.003824 -0.004706 -0.004685 -0.004486 -0.002367 0.003663 0.000169 0.000369 0.003463 -0.004048 -0.001944 0.000833 0.004746 0.000722 -0.004631 0.003173 -0.003117 0.003364 -0.001444 0.003393 0.002581 0.000415 -0.003767 -0.004519 -0.003360 -0.004570 -0.003992 -0.002590 0.002093 0.000722 -0.005094 -0.004178 0.004866 0.000681 -0.003058 -0.002088 0.002435 -0.003142 0.000829 0.004824 0.003039 -0.003035 -0.000196 0.001176 0.003256 -0.003749 -0.005024 -0.004260 -0.000324 0.000997 0.000426 -0.001902 0.005099 0.000704 -0.001109 0.000562 0.002412 0.001617 -0.002525 -0.004367 -0.001303 0.001504 -0.002784 0.002447 -0.004293 -0.002317 0.003258 -0.003160 0.001475 0.000172 0.004285 -0.002441 -0.004057 0.002050 0.002844 0.003983 0.004301 -0.004844 -0.002292 0.001171 0.004496
sent_2 0.004566 0.000413 0.004227 0.001277 -0.001113 0.000085 0.000806 0.000600 0.004174 0.004129 -0.001035 0.004737 -0.003304 -0.003807 -0.003616 0.000014 -0.004649 0.004474 0.003313 -0.004828 -0.003280 -0.001463 -0.003715 0.002866 -0.001387 0.004440 0.000727 0.003877 0.003285 0.004231 -0.000271 0.000481 0.003147 -0.002225 -0.000012 0.000859 -0.004666 0.000882 -0.000503 0.003015 -0.001646 0.003838 0.000825 -0.003023 0.002691 0.001030 -0.004570 -0.000787 0.001782 0.004007 -0.004904 0.004674 -0.001190 0.004902 0.001250 0.003287 0.000692 0.001296 -0.001948 0.000781 0.002154 0.003502 0.002634 0.001916 0.003532 -0.001789 0.001826 -0.000520 -0.001204 -0.000895 -0.000948 -0.001865 0.001192 -0.000667 0.004639 0.001656 -0.002962 -0.000963 -0.001493 0.002755 0.003826 0.003917 0.001626 -0.002167 -0.002589 0.003538 0.000204 0.003105 0.000820 0.002097 -0.000015 0.002757 0.000447 -0.000214 -0.001726 -0.004124 -0.001299 -0.004047 0.004611 -0.003030
sent_3 0.002854 0.003384 0.001567 0.000248 -0.003426 -0.000629 -0.001615 -0.002615 0.001365 -0.001930 0.004428 0.003927 -0.002871 -0.004135 -0.002857 0.000251 0.002271 -0.002771 -0.002549 0.003718 -0.001173 0.001949 -0.002746 -0.004044 0.000093 0.000247 -0.003180 0.001563 0.000641 0.001213 -0.003606 0.002175 -0.002815 0.000469 0.002379 -0.004599 -0.002003 0.003671 0.003720 0.000231 0.003442 0.004954 0.003622 0.003513 -0.004218 0.001539 0.001649 0.000717 0.002668 -0.004566 0.002997 0.001953 -0.002215 -0.002355 0.001324 -0.001669 0.003052 -0.000022 0.002886 0.005145 -0.002353 -0.004068 0.004261 -0.000224 0.004570 0.001654 0.005096 0.000520 0.000623 -0.003488 -0.000954 -0.004824 -0.003490 0.002622 -0.004995 -0.001276 0.003566 0.002056 0.001780 -0.003614 -0.000655 0.000287 0.004413 -0.002880 -0.002693 -0.003192 0.002384 -0.000323 -0.004185 -0.000460 -0.003054 0.002742 -0.002230 -0.004735 0.000295 0.003797 -0.001408 0.002042 -0.000352 0.000385
sent_4 0.004580 0.002990 -0.004758 0.001975 -0.000422 0.004569 -0.002904 -0.002263 -0.004229 -0.000772 -0.003840 0.001363 0.002946 0.001923 0.002687 -0.001544 0.003502 -0.000644 0.003267 0.001290 -0.003686 -0.003970 -0.004904 -0.004431 -0.000365 -0.003740 -0.004737 0.002732 -0.001100 0.002497 -0.000492 -0.000556 -0.000160 -0.000182 0.002999 -0.001034 0.004111 -0.004710 0.002848 -0.003789 0.001196 -0.004880 0.000490 -0.004926 0.004457 0.004080 0.002826 0.004107 -0.003669 -0.003488 -0.003086 0.001114 0.004099 0.005032 0.002254 0.002250 0.004117 -0.000944 -0.002425 -0.003340 -0.004027 0.003041 -0.003465 -0.002494 0.003094 -0.001851 0.004934 -0.002412 0.000407 -0.001853 0.004262 -0.001366 -0.000754 0.000208 0.004325 -0.004726 0.002187 0.003880 -0.004750 0.000045 -0.001762 0.003455 0.000487 0.001977 -0.000579 0.001150 -0.002186 -0.004862 0.000894 -0.002090 0.000099 0.004212 -0.000892 -0.002465 -0.001507 0.004508 0.004358 0.003494 0.004035 -0.002664
sent_5 -0.004160 -0.002933 -0.001825 -0.003350 0.000985 -0.000747 0.002965 -0.002968 0.002102 -0.002685 0.000811 -0.001521 -0.004564 -0.002896 0.001678 0.000041 0.000272 -0.003153 0.000753 0.005051 0.003064 0.001239 0.004783 0.003867 0.001011 -0.004508 -0.004005 -0.004199 -0.000481 -0.001287 0.004818 -0.003341 0.004819 0.002660 0.003153 0.001342 0.001698 -0.000261 -0.004695 -0.001589 -0.000019 0.002374 -0.000132 -0.000283 -0.003713 -0.004992 0.002401 -0.001885 0.004764 -0.002799 -0.001469 0.000113 0.002570 -0.000206 -0.003664 -0.001814 -0.000022 0.001868 0.002785 -0.003718 -0.005066 0.000033 0.003198 -0.005024 0.001626 0.001960 -0.000468 0.004132 0.001431 -0.004784 -0.000032 0.003546 0.003283 0.001487 0.001648 0.000746 -0.002254 0.000419 0.001695 -0.001803 0.003573 -0.003306 0.002323 -0.002066 0.002638 -0.000941 0.002957 -0.001380 -0.002703 0.002407 -0.002028 0.002274 0.002226 -0.002620 -0.003105 -0.002796 -0.003730 -0.001251 -0.004958 -0.003822
sent_6 0.001534 0.003105 -0.004405 -0.002765 -0.002847 0.003831 0.002316 0.000390 -0.001763 0.003478 -0.000590 0.004070 0.001958 -0.000076 -0.003761 0.004976 -0.003474 -0.002838 -0.000805 -0.001005 -0.003605 0.002321 -0.003208 0.001648 0.002454 -0.002851 0.001251 0.002556 0.001574 0.000740 -0.002216 0.002168 0.004413 -0.000627 0.002688 -0.004350 0.003266 -0.003041 -0.001019 -0.002007 -0.004296 0.004230 -0.001237 0.000043 -0.000065 -0.003634 -0.002956 -0.004228 0.000010 -0.002203 -0.001573 -0.003978 0.002901 -0.004026 0.004629 -0.003343 0.000709 -0.004508 0.002773 -0.002939 0.000537 0.002412 -0.003540 0.000412 -0.002831 0.002621 0.002145 -0.003283 0.003855 -0.004852 0.003784 0.000681 -0.000916 0.002681 0.002165 0.005106 -0.002198 -0.004658 0.004268 0.003692 0.002283 0.000201 0.001985 0.002787 -0.001252 0.002571 0.002562 0.001148 -0.001036 0.002087 -0.004795 0.002625 0.004255 -0.002746 -0.003856 -0.002850 -0.002051 0.003586 0.000446 -0.002198
