25 100
the -0.001982 0.004940 0.001662 0.005339 -0.004320 0.002840 0.001158 0.000098 -0.003251 -0.001051 -0.003141 -0.002568 0.003793 0.000439 -0.004786 0.002623 0.000373 0.001829 0.000533 -0.001677 0.005443 -0.006466 0.004808 0.004298 -0.000928 -0.003728 0.000327 -0.004019 0.002261 -0.002142 -0.001712 0.004959 0.004211 -0.000039 0.004526 -0.002098 0.005956 -0.000360 -0.002847 -0.004360 0.005353 -0.001233 0.001393 0.001119 0.002556 -0.004449 0.005017 0.005317 0.001230 0.004157 -0.002877 0.001657 -0.001139 0.001001 -0.002188 0.003198 -0.004708 -0.005806 -0.004064 -0.003955 -0.000592 0.005596 -0.004641 0.002509 0.000379 -0.001810 -0.003300 -0.002652 -0.005176 0.001549 0.000765 -0.000430 0.002299 -0.004591 0.004908 0.003621 0.001470 -0.001315 -0.000647 0.000882 0.004648 0.004785 0.000507 0.000628 0.004352 0.006006 0.001808 0.002608 -0.002305 0.005490 0.003721 0.000762 0.004428 0.003354 0.004299 -0.004388 0.000951 0.004597 0.003555 -0.000673
and -0.001603 0.003741 0.002289 0.002663 0.000067 -0.002697 -0.004060 -0.001632 -0.004633 0.002148 0.001367 -0.000630 0.002950 0.000649 -0.004284 -0.003594 -0.003134 -0.001854 -0.004168 0.000801 0.000283 0.000472 -0.000435 0.003463 -0.000470 -0.004934 0.003374 0.001187 0.002859 0.004206 -0.004017 -0.002509 -0.004218 -0.000899 0.003494 -0.003868 -0.000185 -0.003555 0.002176 0.003418 -0.004662 -0.000520 -0.003048 0.003974 0.004612 0.001159 0.004728 -0.001326 0.003957 -0.000559 -0.002729 0.004252 0.001808 -0.004337 0.003427 0.001891 0.000946 0.001898 -0.002330 0.000717 0.003601 -0.003872 -0.004043 0.003657 0.001138 0.000229 -0.002763 -0.001795 0.003491 -0.000798 -0.004403 0.004154 -0.002627 0.002942 0.004000 0.000076 0.000791 0.000344 0.001276 0.004063 -0.002123 0.003921 0.000610 -0.003661 -0.002320 0.001458 -0.002478 -0.003684 -0.003280 0.003801 0.001216 0.004379 -0.001059 0.000820 0.001346 0.000637 -0.003892 0.002371 0.004695 0.000224
of 0.002977 0.000208 0.002033 -0.002180 0.005674 -0.002044 0.004966 -0.003154 -0.001319 0.003936 0.001698 0.002683 0.000311 0.003242 0.003787 -0.001232 0.000266 -0.005360 -0.000896 -0.000936 0.004673 -0.005699 0.002628 0.000483 0.001401 -0.006099 -0.004640 -0.002947 -0.006000 0.002632 0.004222 0.001013 0.000539 0.000637 -0.000711 -0.002235 0.001792 0.003271 -0.003848 -0.001147 0.002907 -0.002792 -0.005914 -0.003802 -0.002860 0.000174 0.002326 0.004906 0.005031 -0.002793 0.001676 -0.001404 -0.001339 -0.002446 -0.000654 -0.003218 -0.002038 -0.005107 0.005270 -0.000558 0.004884 0.003514 -0.001301 0.003853 0.001491 -0.002595 0.000136 0.002290 -0.002216 -0.006099 -0.003320 0.003380 0.004446 0.000991 -0.003133 0.002584 0.000173 0.002629 0.004099 0.006096 0.001740 0.005107 0.003438 0.002526 0.004016 0.006255 0.004500 -0.001215 -0.005162 0.004810 0.000562 0.001137 0.003905 -0.005158 0.005001 -0.005476 0.002591 0.001883 0.002358 -0.001081
in 0.003148 0.003122 0.001696 -0.000043 -0.002958 -0.000657 -0.001547 -0.002537 0.001376 -0.001652 0.004512 0.004324 -0.002903 -0.003916 -0.002673 0.000054 0.002295 -0.003030 -0.002632 0.003554 -0.001190 0.001742 -0.003013 -0.004372 0.000273 0.000374 -0.003573 0.001570 0.000179 0.001424 -0.003210 0.002169 -0.002897 0.000306 0.002275 -0.004493 -0.002231 0.003959 0.003579 0.000624 0.003424 0.004762 0.003205 0.003187 -0.004351 0.001722 0.001455 0.000717 0.002896 -0.004870 0.002989 0.001809 -0.002362 -0.002443 0.001420 -0.001973 0.003179 -0.000147 0.003346 0.005266 -0.001941 -0.004094 0.004410 0.000046 0.004681 0.001650 0.005003 0.000765 0.000676 -0.003712 -0.001378 -0.004712 -0.003422 0.002728 -0.005189 -0.001375 0.003588 0.002102 0.002063 -0.003256 -0.000902 0.000316 0.004637 -0.002898 -0.002859 -0.002913 0.002339 -0.000371 -0.004212 -0.000471 -0.003249 0.002679 -0.002213 -0.004910 0.000524 0.003587 -0.001155 0.001882 -0.000416 0.000437
HIT 0.004618 0.002779 -0.005033 0.001309 0.000148 0.004071 -0.002627 -0.002476 -0.003890 -0.000437 -0.003651 0.001465 0.002545 0.002299 0.002984 -0.001395 0.003602 -0.000696 0.003094 0.001228 -0.003790 -0.003861 -0.005226 -0.004644 -0.000187 -0.003618 -0.004837 0.002883 -0.001371 0.002475 -0.000214 -0.000833 -0.000143 -0.000024 0.002646 -0.000939 0.004056 -0.004451 0.002891 -0.003661 0.001341 -0.004773 0.000408 -0.005680 0.004064 0.004199 0.002481 0.004239 -0.003651 -0.003703 -0.003120 0.000797 0.004126 0.005056 0.002014 0.001674 0.004095 -0.000917 -0.001956 -0.003016 -0.003748 0.002935 -0.003151 -0.002649 0.003064 -0.001733 0.005101 -0.002291 0.000717 -0.002278 0.004360 -0.001382 -0.000634 0.000510 0.003825 -0.004676 0.002252 0.004324 -0.004608 0.000228 -0.001873 0.003472 0.000602 0.002234 -0.000739 0.000993 -0.002035 -0.004781 0.000800 -0.002400 0.000044 0.003997 -0.000620 -0.002889 -0.001633 0.004422 0.004393 0.003064 0.003590 -0.002682
to -0.000728 0.002116 -0.004965 -0.002346 -0.002991 -0.004169 -0.002762 -0.001645 -0.001172 0.000754 -0.000660 0.002027 -0.003067 0.004069 -0.004485 0.001649 -0.000819 0.000423 -0.003554 -0.003218 0.003040 0.004476 -0.001853 0.001896 0.003903 0.003746 -0.004380 -0.004540 -0.003790 0.003955 -0.003634 -0.000912 0.004683 0.000450 0.001823 -0.001965 0.002040 0.003439 -0.005025 0.002643 0.004925 0.002248 -0.002533 0.002421 -0.004128 -0.000364 0.003945 -0.001763 -0.001908 -0.003910 -0.004906 0.001624 -0.002903 -0.002253 -0.000067 -0.004880 0.000564 -0.003794 0.001403 0.001815 -0.003683 -0.000620 0.001948 -0.000687 -0.004599 0.000220 0.001661 0.000189 0.004503 0.000318 0.003900 -0.003318 -0.003412 0.003218 -0.001212 -0.003174 0.004144 -0.001282 0.002672 0.002629 0.003842 0.001464 0.002624 -0.001222 -0.002222 0.004255 -0.000540 0.004697 0.001460 0.001349 -0.003732 0.004527 -0.000304 0.000504 -0.000892 -0.002811 0.004137 0.000709 -0.005062 0.001221
first 0.004461 -0.002614 0.001501 0.004733 -0.000812 0.005110 -0.002158 0.001394 0.000745 -0.002577 -0.005365 -0.000386 0.005110 -0.001620 0.002105 -0.003719 -0.001406 -0.004202 0.002575 0.001624 0.002533 -0.003708 0.002416 -0.002869 -0.000645 -0.001996 -0.002529 -0.005209 0.000633 0.002565 0.001354 0.002366 -0.003188 -0.003909 0.001245 0.003004 -0.002280 -0.000152 -0.001403 0.000104 -0.002820 -0.002490 -0.003153 0.003967 0.003263 -0.000668 0.002021 -0.002808 0.000704 -0.002492 0.003194 0.002446 0.001220 -0.003963 -0.000047 0.005176 0.004447 0.000497 -0.003223 0.000797 0.000409 0.000462 -0.001296 0.001734 0.003737 0.002151 0.000697 0.004458 -0.005029 0.004715 -0.005176 -0.003070 -0.000913 -0.004533 0.001767 -0.004733 -0.002185 -0.004818 0.002212 0.002174 -0.001024 -0.002191 0.003025 -0.001717 0.003388 0.001165 0.000396 -0.004780 0.000710 -0.000383 -0.002714 -0.000133 -0.001114 -0.000130 0.005814 -0.001740 0.003467 0.001528 0.004722 -0.001327
research -0.003644 -0.002311 0.001021 -0.002193 -0.000273 -0.000758 0.003243 -0.000718 -0.001287 0.001830 -0.002633 -0.000239 -0.002254 0.001291 0.003970 -0.000428 0.003035 -0.000385 0.001513 -0.003620 -0.000819 0.004393 0.000795 0.002374 0.000153 0.000271 0.003374 -0.004082 0.000658 0.004424 0.000359 -0.003241 0.003506 -0.002405 0.001788 0.000518 0.004451 0.001451 0.003665 -0.004996 0.005178 -0.004118 -0.001584 0.004110 -0.005151 0.003323 0.003325 -0.000536 -0.002533 0.002926 -0.000178 -0.003939 0.004335 0.004263 -0.000160 0.003297 -0.000829 0.001989 -0.000775 0.000322 -0.003214 0.004423 -0.001771 -0.004197 -0.003512 -0.004684 0.002388 0.000708 0.003114 -0.000037 0.003073 0.001748 0.002776 -0.000788 0.001156 -0.003343 -0.001680 -0.003079 -0.000918 -0.002826 -0.001081 0.004678 -0.001825 0.004969 0.001081 -0.001571 0.003558 0.001299 -0.002427 0.002488 -0.000790 -0.001542 -0.001772 0.001897 -0.002615 0.003307 -0.002134 0.000159 -0.000571 0.003583
a -0.004336 -0.003040 -0.002157 -0.003447 0.000983 -0.001029 0.003071 -0.003046 0.002552 -0.002767 0.000819 -0.001740 -0.004645 -0.002853 0.001916 0.000215 0.000073 -0.002900 0.000728 0.005090 0.002855 0.001539 0.004678 0.003991 0.000847 -0.004169 -0.003567 -0.004055 -0.000140 -0.001654 0.004619 -0.003576 0.004673 0.002794 0.002665 0.001703 0.001317 -0.000325 -0.004549 -0.001616 -0.000390 0.002650 0.000105 -0.000465 -0.003663 -0.004952 0.002109 -0.002187 0.004392 -0.002426 -0.001255 -0.000081 0.002602 -0.000222 -0.003848 -0.001812 0.000081 0.002194 0.002468 -0.003482 -0.004822 -0.000109 0.003286 -0.005256 0.001538 0.002075 -0.000450 0.004083 0.001548 -0.004515 0.000251 0.003479 0.003294 0.001562 0.001523 0.000885 -0.002304 0.000589 0.001539 -0.001887 0.003497 -0.003639 0.002014 -0.002066 0.002629 -0.001388 0.002926 -0.001373 -0.002350 0.002106 -0.001905 0.001954 0.002327 -0.002667 -0.003295 -0.002763 -0.003772 -0.001658 -0.005033 -0.003903
have -0.003139 0.002349 -0.005209 -0.002086 0.004509 0.000607 0.003708 0.000972 0.003457 0.004019 -0.001769 -0.003720 0.002065 -0.000356 -0.003353 0.001014 -0.004598 -0.003000 0.002878 -0.004869 -0.002176 -0.004659 0.004659 0.000703 -0.001982 0.004356 0.000122 -0.000297 0.000753 -0.002522 -0.001758 -0.001531 -0.002583 0.000847 0.001634 -0.003985 0.004520 0.002581 0.003119 0.002542 -0.004283 -0.000179 -0.000666 0.001095 -0.000606 0.002177 0.001557 0.001921 0.001015 -0.003503 0.002508 0.002517 0.004125 -0.002586 -0.003354 -0.001384 -0.001723 0.003199 0.001298 0.002796 -0.000419 -0.003990 -0.003804 -0.001344 -0.003064 0.003212 0.001050 0.001970 0.000242 -0.004233 -0.002440 -0.000282 -0.002878 -0.004541 0.002108 0.002313 -0.001704 0.003712 -0.000763 0.003760 0.001382 0.000707 -0.003054 0.000399 0.003759 -0.002068 0.003661 0.004005 -0.001540 0.001716 0.003922 -0.004407 0.003985 -0.003287 0.003264 0.001715 -0.001523 -0.003858 0.001176 0.003417
for -0.002985 -0.000560 0.003535 0.000829 -0.000305 0.000166 0.000667 -0.000591 -0.003111 -0.003746 -0.003500 -0.004298 0.000610 0.003471 -0.001468 -0.004305 -0.000700 0.000857 -0.000743 0.003053 0.004456 0.003607 0.002028 -0.000442 0.001948 -0.004888 0.004603 -0.003341 0.003874 0.003232 0.003107 -0.002200 -0.002731 -0.000778 0.003600 -0.000695 0.004488 -0.001393 0.001197 0.004849 0.001638 -0.004566 -0.000460 -0.001691 0.000167 -0.002174 -0.003699 0.001788 0.001926 0.003442 -0.003634 0.003048 0.003272 0.001476 -0.002853 -0.002453 -0.000879 0.000348 -0.000022 -0.000243 0.003271 0.003646 0.003205 0.003856 0.000693 0.004578 0.001195 0.001083 -0.001866 0.001619 -0.004560 -0.003770 -0.003712 0.001537 -0.003330 -0.001667 -0.004454 -0.002703 0.004704 0.000121 -0.003402 0.000394 0.004562 0.003706 -0.001112 -0.002012 0.002707 -0.002452 -0.002554 -0.004165 0.003474 -0.000454 0.000581 0.002295 0.003058 -0.000558 -0.003134 0.003337 -0.004724 0.004539
has 0.005011 -0.002513 -0.001194 0.004703 0.003054 0.004421 -0.005005 -0.000872 -0.003036 -0.002010 0.002268 0.002481 -0.000163 -0.001446 0.000620 0.000035 0.000577 0.000880 -0.000916 0.002604 -0.002221 0.001218 0.004828 -0.005197 0.002362 -0.004012 0.000005 0.001045 -0.002910 0.004410 0.001531 -0.002335 0.002707 -0.004160 0.000898 -0.004328 0.001099 -0.002299 0.001339 0.002320 0.000505 0.001168 0.002830 0.003342 0.001224 -0.000526 -0.000782 0.003985 0.002353 -0.003337 0.000668 0.004283 -0.003564 0.003485 0.003400 0.000076 -0.004733 -0.003787 0.004512 -0.004743 -0.001386 0.001324 -0.003102 0.005198 -0.003388 0.000369 0.001095 -0.002527 -0.000720 -0.000079 0.002183 0.001274 -0.000406 0.001437 -0.000409 0.000112 0.001551 -0.003535 0.003083 0.001088 0.004781 -0.002549 -0.000155 0.003938 0.001066 0.002680 -0.000864 0.001900 0.004252 -0.002818 0.002995 0.004808 -0.005033 -0.002627 -0.003412 0.002559 -0.004019 0.005338 -0.000992 0.004246
with 0.004172 -0.000862 -0.004262 0.003494 0.000321 -0.001812 0.004863 0.004433 -0.002431 -0.002737 0.000818 0.003428 -0.001610 0.000986 -0.003308 -0.002963 0.002601 -0.003485 -0.002159 0.001682 -0.004842 -0.004874 -0.002107 -0.001586 -0.001368 0.003074 -0.004730 -0.001412 0.001172 -0.003679 0.003676 0.001485 -0.003773 -0.002858 0.002391 -0.000959 -0.000005 0.003977 -0.003713 0.004596 -0.004485 -0.004170 -0.002921 0.002727 -0.000431 0.001658 -0.003238 -0.003084 0.000170 0.002438 -0.000518 0.003617 0.001603 -0.002363 -0.002748 -0.001387 0.002433 0.004160 0.003740 -0.002424 -0.000713 0.001367 0.000352 -0.000999 -0.004023 0.002001 -0.004108 0.003660 0.003605 0.001937 -0.000086 0.002070 -0.000963 0.002894 0.002866 -0.003275 -0.001871 -0.001384 -0.001456 0.000794 -0.004559 0.001767 -0.003015 -0.000763 -0.000431 -0.001337 -0.001093 -0.003086 -0.004332 0.000747 0.001110 -0.003595 -0.002456 -0.002158 0.003345 -0.003489 0.000658 0.000582 -0.001496 -0.001457
universities -0.001606 0.000497 0.004000 -0.001346 0.004197 0.001389 -0.004771 0.004347 0.001421 0.005219 -0.003344 -0.003462 0.004426 0.002136 -0.004621 0.002493 0.002633 0.004022 0.002142 -0.003910 -0.004584 -0.005158 -0.004567 -0.002577 0.003780 -0.000009 0.000141 0.003245 -0.004146 -0.001941 0.001048 0.004870 0.000770 -0.004899 0.003409 -0.003052 0.003568 -0.001024 0.003364 0.002562 0.000885 -0.003951 -0.004716 -0.003886 -0.004482 -0.003912 -0.002464 0.002599 0.000921 -0.005157 -0.004674 0.004897 0.000633 -0.002927 -0.002435 0.002249 -0.003291 0.000290 0.005057 0.003196 -0.002583 0.000266 0.000959 0.003677 -0.003473 -0.004878 -0.004342 -0.000155 0.000999 0.000360 -0.001998 0.004970 0.000773 -0.001244 0.000640 0.002467 0.001709 -0.002379 -0.004187 -0.000969 0.001425 -0.002426 0.002808 -0.004231 -0.002338 0.003618 -0.002981 0.001469 -0.000087 0.004651 -0.002251 -0.004029 0.002490 0.002686 0.004292 0.004161 -0.004758 -0.002305 0.001242 0.004581
as -0.003519 0.001272 0.001541 -0.000832 -0.004314 -0.000081 -0.000396 0.003074 -0.002444 -0.000946 -0.002593 0.001914 0.004807 -0.003136 0.003302 -0.002661 -0.004393 -0.003558 0.004426 0.003798 -0.002154 0.004591 0.003363 -0.000744 -0.000239 0.001323 -0.003481 -0.004696 -0.002513 -0.004770 0.001793 0.000421 -0.001728 0.002838 -0.003623 -0.002558 -0.002001 -0.003052 -0.004069 0.003673 -0.004051 0.001743 -0.003861 -0.005097 0.000545 0.004157 0.003498 -0.001520 -0.004800 0.002928 0.002957 0.003590 0.001735 0.003194 0.004033 -0.000571 0.000607 0.000004 0.002031 0.001813 0.000165 0.003315 0.000062 0.003193 -0.002189 -0.003228 0.004806 0.002400 -0.002302 0.000767 0.004668 -0.004166 -0.004171 0.001270 -0.002835 0.002657 0.000680 0.001749 -0.003930 -0.004130 0.001226 -0.000906 -0.004159 -0.001204 0.001616 -0.003072 0.003852 0.004475 0.004686 0.002228 -0.000970 0.002491 -0.002112 -0.001853 0.000903 0.001051 0.003884 -0.002484 0.002600 0.004413
are -0.000094 -0.001857 0.000381 0.003948 -0.000839 -0.001658 0.003069 0.001408 -0.000184 0.001864 -0.000701 -0.003983 -0.001112 -0.001581 -0.002238 0.004785 0.001869 0.001512 0.002357 0.000555 0.001478 0.005095 0.003302 -0.003298 -0.002472 -0.003556 0.005399 -0.002144 0.001945 -0.004749 -0.002919 -0.000584 -0.003905 -0.000770 -0.000550 -0.000892 0.000005 0.000378 -0.000735 0.001750 0.001441 0.002451 0.001165 -0.002004 0.000930 0.004390 0.000242 0.004359 -0.001190 0.002797 -0.004393 0.001947 0.000259 -0.004655 -0.002611 0.000064 0.002682 -0.003894 0.000397 0.003357 0.001634 0.003946 -0.003878 -0.002924 0.003946 0.002956 0.001014 0.003272 0.004439 0.004966 0.005684 -0.003563 -0.004122 -0.003979 -0.005217 0.004921 -0.004071 0.003806 0.001595 -0.000544 -0.001683 -0.002223 -0.003020 0.004245 0.002039 -0.005707 -0.000507 -0.002043 -0.004098 0.003091 0.002799 -0.002274 0.003072 -0.001856 -0.002709 0.004556 0.004470 -0.000674 0.003831 0.003750
Academy -0.002511 0.004298 -0.004601 0.004815 0.000645 -0.001096 0.005112 -0.004553 -0.000028 -0.004693 0.000572 -0.003274 0.001625 0.005030 0.003707 -0.000431 0.002058 0.002855 -0.000075 0.000169 -0.003436 -0.001742 -0.003561 0.002393 -0.000322 -0.000744 0.003940 0.000173 -0.000852 -0.002348 -0.004370 -0.000726 -0.004726 -0.002150 0.000176 0.004742 -0.003910 0.001584 -0.000192 0.002850 -0.003673 -0.004259 -0.001058 0.002837 -0.002797 0.002712 -0.001955 -0.002691 -0.004813 -0.000934 -0.001421 0.001654 -0.004406 -0.003556 -0.004889 -0.003809 0.001497 -0.001277 -0.001997 0.000361 0.005314 0.003671 0.001729 0.004419 -0.004529 -0.004430 -0.000490 -0.001665 0.004300 -0.000163 0.000311 0.004100 -0.000442 0.003625 -0.002190 -0.002131 -0.001727 0.000569 -0.002800 0.002071 -0.003561 -0.003924 0.003822 -0.002583 -0.000957 0.001037 0.000295 -0.004310 0.003745 0.004776 0.003373 -0.002138 0.000535 -0.001667 0.000775 0.004540 -0.001719 0.001827 -0.001425 0.002715
scientific 0.001136 0.004223 0.001429 -0.002348 -0.001924 0.000744 0.004611 -0.003081 -0.000791 -0.001237 0.002690 0.003433 -0.000474 -0.002841 -0.004917 -0.003306 -0.002158 0.000585 0.003821 -0.004038 0.004750 0.001201 0.002546 0.004669 -0.000615 -0.000157 0.001017 -0.000000 -0.002692 -0.003373 -0.002016 0.003056 0.001533 0.002943 0.000965 -0.003617 0.002066 -0.001921 -0.005019 0.004373 -0.000445 -0.001258 0.001891 0.004646 -0.004311 -0.003073 -0.001294 -0.001867 0.000477 0.002596 0.003126 0.001482 -0.002637 -0.003189 0.002810 -0.002826 0.000238 0.001869 -0.002087 -0.003692 -0.004857 -0.003191 0.003253 -0.003466 -0.002838 -0.004945 0.001838 -0.002744 -0.000985 -0.004286 -0.001621 -0.000616 -0.000508 -0.000807 -0.003786 0.002686 -0.003551 -0.000772 -0.002107 -0.001580 0.001894 0.000904 -0.002696 -0.000227 -0.001518 0.002869 -0.002613 0.003585 -0.000338 0.000620 -0.002422 -0.002584 -0.000330 0.004685 -0.003228 -0.002230 0.003278 0.002346 -0.001910 -0.001575
In -0.004755 -0.000080 0.001787 0.003483 -0.003107 0.003746 -0.001326 0.003947 -0.005077 -0.003985 0.004764 0.001321 -0.000760 -0.003209 0.001303 -0.004680 -0.001691 -0.001971 0.001078 0.001423 0.003621 0.003875 0.001616 0.000594 -0.000868 0.004373 -0.003903 0.003779 -0.002245 0.000743 0.001974 -0.002390 -0.003224 0.000022 0.003240 0.001648 -0.003487 0.004157 -0.000395 0.004494 0.000888 -0.004359 -0.003174 0.003470 0.002068 0.004012 -0.001446 0.000664 0.001786 0.000610 -0.002918 -0.000604 -0.002624 0.003473 0.004902 -0.004445 0.002051 -0.002157 0.001574 -0.002560 0.001515 -0.001032 -0.002108 0.004403 0.004536 0.001096 -0.002818 0.004402 0.002350 0.002219 -0.003112 0.003241 -0.002633 0.001245 0.002118 0.002313 -0.001011 0.002575 0.004164 0.001051 -0.004062 -0.003338 -0.003563 -0.003236 -0.003694 0.003191 -0.004486 -0.002559 0.003453 0.004989 0.001055 0.005007 -0.004489 0.004384 -0.001622 0.002893 0.003277 0.003882 -0.000335 0.004335
national 0.003234 0.001207 0.004576 0.000899 -0.003021 -0.000634 -0.001621 0.004996 -0.001154 0.004902 0.000140 -0.003302 -0.004232 -0.001372 -0.003685 0.001324 -0.000881 0.004898 0.004384 -0.003448 -0.001090 -0.000397 0.000686 0.002770 -0.000160 -0.000819 -0.002319 0.004122 -0.004723 0.003136 -0.003031 0.001857 -0.001475 0.004739 -0.003866 -0.003054 0.003897 0.000777 -0.001863 -0.005079 -0.002815 -0.003575 -0.002905 0.003948 0.003832 0.001962 -0.000363 0.003242 -0.000074 -0.001277 -0.002126 0.004199 -0.001061 0.000012 -0.002472 0.003932 -0.001210 -0.001946 0.002130 -0.003141 -0.003819 0.003362 0.002417 0.000893 -0.002587 0.001298 0.001399 -0.001733 -0.004437 0.003875 -0.000413 0.002612 -0.002427 0.000852 -0.000695 -0.001201 -0.003814 -0.002636 -0.004268 -0.002055 0.002386 0.001105 0.001648 -0.004884 0.001815 -0.000064 -0.002698 -0.003278 -0.003093 0.003324 0.004864 0.004059 -0.001550 0.002854 0.000425 0.003183 -0.000232 0.000859 0.002862 -0.004056
its 0.001759 0.002847 -0.004138 -0.002815 -0.002896 0.004221 0.002045 0.000595 -0.001912 0.003349 -0.000652 0.004266 0.001967 -0.000216 -0.003628 0.004756 -0.003303 -0.002904 -0.000628 -0.000977 -0.003516 0.002426 -0.003170 0.001312 0.002607 -0.002819 0.000987 0.002544 0.001286 0.000989 -0.001934 0.002288 0.004522 -0.000753 0.002742 -0.004367 0.003382 -0.003049 -0.000968 -0.002060 -0.004051 0.003960 -0.001268 0.000232 -0.000153 -0.003686 -0.003052 -0.004198 0.000029 -0.002366 -0.001399 -0.004056 0.002878 -0.003787 0.004876 -0.003233 0.000725 -0.004533 0.002936 -0.003104 0.000191 0.002403 -0.003402 0.000430 -0.002816 0.002584 0.002274 -0.003214 0.003590 -0.004729 0.003630 0.000559 -0.000927 0.002588 0.002051 0.004825 -0.002212 -0.005004 0.004343 0.003436 0.002233 0.000082 0.002036 0.002871 -0.001330 0.002652 0.002425 0.001139 -0.000905 0.001817 -0.005034 0.002687 0.003898 -0.002500 -0.003887 -0.002706 -0.001938 0.003798 0.000302 -0.002098
was -0.002069 0.000231 0.003991 0.000923 0.001601 -0.000338 0.004830 0.002473 -0.001736 0.001595 0.000199 0.003883 -0.001993 -0.003835 -0.003199 -0.001182 0.003557 -0.002473 0.001368 0.001164 -0.000649 -0.004993 0.002682 -0.002011 -0.000985 -0.001603 0.001366 -0.004460 0.000330 -0.004747 0.004943 0.001243 -0.001079 -0.003637 0.002210 0.003948 -0.001541 0.002708 -0.002432 0.004481 0.002144 0.000979 0.004053 -0.002279 0.004431 0.001703 0.003004 0.000981 0.003534 0.001918 -0.003674 0.001278 -0.002248 0.004071 -0.003081 -0.002034 -0.004611 -0.000936 0.000600 0.000482 0.004162 -0.001135 -0.000778 0.003812 0.000847 0.001499 -0.002315 -0.000081 0.000912 -0.003683 -0.004867 -0.003833 -0.000150 -0.004965 0.001460 -0.004019 -0.002543 -0.000884 -0.003741 -0.002024 -0.004672 0.005131 0.001345 -0.001204 -0.004466 -0.000649 -0.000359 0.004219 -0.002430 0.001511 0.001765 -0.002996 0.000249 0.002862 -0.003662 0.000784 -0.004533 -0.004634 -0.004119 -0.000267
key 0.000266 -0.001187 0.002136 -0.000345 0.001104 0.005052 0.002818 -0.001647 -0.004354 -0.003099 0.000214 -0.000748 0.003113 0.004397 -0.003234 0.003533 0.004622 0.004470 -0.004574 -0.004448 -0.004917 -0.002101 -0.004382 -0.002112 -0.001423 0.004341 -0.000387 -0.002291 -0.000099 0.001535 -0.003800 0.002630 0.003523 0.003405 0.004054 -0.001280 -0.000399 -0.003992 -0.002831 0.004723 -0.002119 0.003896 0.003789 0.004189 -0.003312 0.003893 0.001453 -0.002719 -0.001457 -0.003491 -0.000665 -0.004112 -0.003337 -0.002970 0.001953 0.000708 0.003693 -0.002763 0.001389 -0.004830 0.000243 0.003826 0.004686 -0.004734 -0.002450 -0.002789 -0.004526 -0.004919 -0.000158 -0.004682 -0.002305 0.001452 -0.002058 -0.002345 0.001013 -0.001230 0.001997 -0.000033 0.001364 -0.001323 -0.002160 -0.003480 0.004469 0.003118 0.004451 -0.002953 0.004389 0.004305 -0.002275 -0.002103 0.000616 -0.003023 -0.000544 -0.003207 0.004574 -0.000089 0.004716 0.001619 -0.000047 0.004694
by -0.000838 0.000784 0.001960 0.003274 0.001862 -0.002760 0.004206 0.002875 -0.001753 -0.001940 0.003896 -0.003725 0.001142 -0.002216 0.003477 -0.001264 0.002326 -0.003056 -0.000202 0.003112 -0.001210 -0.002972 0.001383 0.002389 -0.002154 -0.000250 0.004005 0.003843 0.002015 0.000792 0.003221 0.003868 -0.004970 -0.000902 0.000319 0.002404 -0.004215 -0.001009 -0.002116 -0.000791 -0.000136 0.001721 -0.000001 0.001076 0.000671 -0.000635 -0.005156 -0.003216 -0.002002 -0.003529 0.001144 0.000888 0.000100 -0.001744 0.001572 -0.003226 -0.004827 0.002528 -0.000413 0.002071 -0.003262 -0.004516 -0.001092 0.001677 -0.004091 -0.002912 -0.000338 0.001283 0.002684 -0.003812 0.001520 -0.001149 0.001643 -0.002789 0.000053 -0.003261 -0.004792 -0.000056 -0.003152 0.001204 0.000295 0.002467 -0.001298 0.004985 0.000078 -0.000555 0.002432 0.000744 -0.001200 -0.000410 -0.003220 -0.001162 -0.004792 -0.000455 -0.002510 0.000407 -0.004655 0.000349 -0.002302 0.000799
Chinese 0.004761 0.001061 0.004400 0.001937 -0.000995 0.000169 0.001249 0.000441 0.003700 0.004435 -0.001382 0.004750 -0.002673 -0.003510 -0.004033 -0.000150 -0.004844 0.004128 0.003366 -0.005108 -0.002854 -0.002738 -0.003449 0.003237 -0.001550 0.003742 0.000447 0.003363 0.003224 0.004283 -0.000344 0.000886 0.002954 -0.002416 0.000517 0.000674 -0.004435 0.000975 -0.001092 0.003233 -0.001738 0.003442 0.000255 -0.003186 0.003261 0.001113 -0.003887 -0.000306 0.002241 0.003995 -0.005415 0.005243 -0.001300 0.004458 0.001013 0.003396 0.000626 0.000652 -0.002165 0.000579 0.002889 0.004099 0.002002 0.002652 0.003844 -0.001996 0.001462 -0.000477 -0.001480 -0.001174 -0.001501 -0.001670 0.001284 -0.001021 0.005221 0.001845 -0.003049 -0.000761 -0.001450 0.003707 0.003916 0.004751 0.002058 -0.002376 -0.002169 0.004487 0.000427 0.002883 0.000259 0.003160 0.000419 0.002974 0.001090 -0.000417 -0.000839 -0.004776 -0.000934 -0.003734 0.005504 -0.003231
